20090105   143876.616769        0.014388 10000000.000000 10000000.000000       -0.000000
20090106   360265.841967        0.036027  1340972.834954 10000000.000000       -0.000000
20090107    52026.560964        0.005203  1079782.092398 10000000.000000       -0.000000
20090108  -191658.876238       -0.019166  1529903.791708 10000000.000000       -0.000000
20090109   288817.155992        0.028882  1420785.230032 10000000.000000       -0.000000
20090112   139542.166746        0.013954  1575542.566187 10000000.000000       -0.000000
20090113  -246495.548282       -0.024650  1461977.313293 10000000.000000       -0.000000
20090114   366100.991367        0.036610  1231967.904748 10000000.000000       -0.000000
20090115    79270.013325        0.007927  1261402.004016 10000000.000000       -0.000000
20090116    59215.676066        0.005922  1505597.149523 10000000.000000       -0.000000
20090119    14863.337505        0.001486  1428783.513768 10000000.000000       -0.000000
20090120   109546.826701        0.010955  1397161.279223 10000000.000000       -0.000000
20090121   -21101.298078       -0.002110  1424419.014594 10000000.000000       -0.000000
20090122   158946.704705        0.015895  1549132.243110 10000000.000000       -0.000000
20090123   -51047.615681       -0.005105  1480978.680962 10000000.000000       -0.000000
20090202   278964.945543        0.027896  1323329.319233 10000000.000000       -0.000000
20090203   271699.055091        0.027170  1152281.801243 10000000.000000       -0.000000
20090204   201820.479841        0.020182  1286985.805634 10000000.000000       -0.000000
20090205  -131077.097343       -0.013108  1192320.676872 10000000.000000       -0.000000
20090206   427871.610605        0.042787  1487052.469259 10000000.000000       -0.000000
20090209   305065.642658        0.030507  1212590.215932 10000000.000000       -0.000000
20090210   268197.359134        0.026820  1157695.674605 10000000.000000       -0.000000
20090211    -9245.788188       -0.000925  1285524.564458 10000000.000000       -0.000000
20090212   172352.839891        0.017235  1359858.524699 10000000.000000       -0.000000
20090213   355106.244400        0.035511  1258900.466913 10000000.000000       -0.000000
20090216   172057.299263        0.017206  1152656.912765 10000000.000000       -0.000000
20090217  -374423.257987       -0.037442  1059284.265908 10000000.000000       -0.000000
20090218  -362625.214446       -0.036263  1498260.064049 10000000.000000       -0.000000
20090219   243626.507405        0.024363  1410862.335479 10000000.000000       -0.000000
20090220   328951.924203        0.032895  1191901.692737 10000000.000000       -0.000000
20090223   337099.862588        0.033710  1191800.177181 10000000.000000       -0.000000
20090224  -431648.530789       -0.043165  1076989.651530 10000000.000000       -0.000000
20090225   144169.125675        0.014417  1348484.546692 10000000.000000       -0.000000
20090226  -648918.532006       -0.064892  1204295.147976 10000000.000000       -0.000000
20090227  -520590.092550       -0.052059  1281967.528470 10000000.000000       -0.000000
20090302   276195.041788        0.027620  1210193.964981 10000000.000000       -0.000000
20090303   112839.807924        0.011284  1304048.736162 10000000.000000       -0.000000
20090304   602436.045945        0.060244  1213566.075170 10000000.000000       -0.000000
20090305   115796.182615        0.011580  1062372.074716 10000000.000000       -0.000000
20090306   -70513.440181       -0.007051  1220560.039462 10000000.000000       -0.000000
20090309  -378783.689897       -0.037878  1559172.521060 10000000.000000       -0.000000
20090310   264379.940205        0.026438  1354132.001242 10000000.000000       -0.000000
20090311   -25193.840555       -0.002519  1343838.439785 10000000.000000       -0.000000
20090312    33458.528664        0.003346  1151893.351979 10000000.000000       -0.000000
20090313   -63550.403338       -0.006355  1232541.015613 10000000.000000       -0.000000
20090316   169048.070856        0.016905  1465642.449324 10000000.000000       -0.000000
20090317   363308.032069        0.036331  1596392.118983 10000000.000000       -0.000000
20090318   119540.121248        0.011954  1480237.455811 10000000.000000       -0.000000
20090319   226817.430388        0.022682  1517844.884592 10000000.000000       -0.000000
20090320   -23949.483804       -0.002395  1258585.685625 10000000.000000       -0.000000
20090323   179049.121154        0.017905  1769857.926806 10000000.000000       -0.000000
20090324    56777.408381        0.005678  1739888.939226 10000000.000000       -0.000000
20090325  -225592.977208       -0.022559  1568100.000598 10000000.000000       -0.000000
20090326   252987.553536        0.025299  1640763.138324 10000000.000000       -0.000000
20090327   108627.516009        0.010863  1608399.202968 10000000.000000       -0.000000
20090330    74408.480154        0.007441  2103920.395096 10000000.000000       -0.000000
20090331    84347.657359        0.008435  2149554.678524 10000000.000000       -0.000000
20090401   174471.791162        0.017447  1980636.299511 10000000.000000       -0.000000
20090402    17620.209773        0.001762  1539818.767528 10000000.000000       -0.000000
20090403   -37679.771967       -0.003768  1745279.879575 10000000.000000       -0.000000
20090407   131450.005628        0.013145  1855506.111890 10000000.000000       -0.000000
20090408  -312537.657313       -0.031254  1773146.335490 10000000.000000       -0.000000
20090409   176815.079112        0.017682  1749423.689932 10000000.000000       -0.000000
20090410   290843.141867        0.029084  1376457.874149 10000000.000000       -0.000000
20090413   146985.360958        0.014699  2281494.578842 10000000.000000       -0.000000
20090414   178607.310767        0.017861  1741025.721422 10000000.000000       -0.000000
20090415   154767.027967        0.015477  1357835.959963 10000000.000000       -0.000000
20090416    72481.968688        0.007248  1967179.238971 10000000.000000       -0.000000
20090417  -131538.367901       -0.013154  2053014.538872 10000000.000000       -0.000000
20090420   254305.125199        0.025431  2301994.865522 10000000.000000       -0.000000
20090421   -39531.163496       -0.003953  2909734.338534 10000000.000000       -0.000000
20090422  -430632.886663       -0.043063  3279612.321168 10000000.000000       -0.000000
20090423    75556.839781        0.007556  2809793.334001 10000000.000000       -0.000000
20090424   -29303.723553       -0.002930  2726673.327496 10000000.000000       -0.000000
20090427  -334879.668649       -0.033488  3436888.870375 10000000.000000       -0.000000
20090428   121872.822401        0.012187  4523481.413887 10000000.000000       -0.000000
20090429   219113.430750        0.021911  4076093.068390 10000000.000000       -0.000000
20090430   137018.914649        0.013702  3324021.520381 10000000.000000       -0.000000
20090504   318165.781274        0.031817  3212712.014249 10000000.000000       -0.000000
20090505   144514.052938        0.014451  1301335.848421 10000000.000000       -0.000000
20090506   157122.207743        0.015712  1444983.660486 10000000.000000       -0.000000
20090507   -65176.357494       -0.006518  1953520.355016 10000000.000000       -0.000000
20090508    57710.643611        0.005771  1559918.252159 10000000.000000       -0.000000
20090511  -329874.843016       -0.032987  2174385.530431 10000000.000000       -0.000000
20090512   226480.693319        0.022648  1881522.082695 10000000.000000       -0.000000
20090513   103938.774528        0.010394  1682075.383320 10000000.000000       -0.000000
20090514    25558.802799        0.002556  1500221.960995 10000000.000000       -0.000000
20090515    77411.010535        0.007741  1538528.721183 10000000.000000       -0.000000
20090518   126391.172950        0.012639  2369784.700673 10000000.000000       -0.000000
20090519    92111.528401        0.009211  2150108.770784 10000000.000000       -0.000000
20090520   -44586.616095       -0.004459  1752585.186813 10000000.000000       -0.000000
20090521  -158038.346901       -0.015804  1791542.947387 10000000.000000       -0.000000
20090522    20665.650302        0.002067  1858598.141347 10000000.000000       -0.000000
20090525    28876.460275        0.002888  2311264.198382 10000000.000000       -0.000000
20090526    60620.014268        0.006062  1742756.395460 10000000.000000       -0.000000
20090527    19504.904516        0.001950  1652502.223574 10000000.000000       -0.000000
20090601   188459.613298        0.018846  1841271.447401 10000000.000000       -0.000000
20090602    70236.579984        0.007024  1949473.058725 10000000.000000       -0.000000
20090603   109415.868796        0.010942  1792815.920068 10000000.000000       -0.000000
20090604   -15378.502929       -0.001538  1204630.212854 10000000.000000       -0.000000
20090605   -26047.239356       -0.002605  1536604.053037 10000000.000000       -0.000000
20090608    23058.412123        0.002306  1421370.689232 10000000.000000       -0.000000
20090609    71868.064998        0.007187  1379863.853172 10000000.000000       -0.000000
20090610   131906.585580        0.013191  1272717.533533 10000000.000000       -0.000000
20090611   -48019.426144       -0.004802  1537190.339985 10000000.000000       -0.000000
20090612  -223392.022812       -0.022339  1525593.253102 10000000.000000       -0.000000
20090615   154066.235985        0.015407  1275119.454405 10000000.000000       -0.000000
20090616    -2359.396208       -0.000236  1216272.932758 10000000.000000       -0.000000
20090617   141963.437369        0.014196  1139939.629987 10000000.000000       -0.000000
20090618    76854.853899        0.007685  1456434.788513 10000000.000000       -0.000000
20090619    68096.365701        0.006810  1493075.437197 10000000.000000       -0.000000
20090622   -56793.603115       -0.005679  1411486.722582 10000000.000000       -0.000000
20090623   -13833.377246       -0.001383  1621238.254599 10000000.000000       -0.000000
20090624   131568.111299        0.013157  1310555.518590 10000000.000000       -0.000000
20090625     8365.672288        0.000837  1295543.211456 10000000.000000       -0.000000
20090626    60192.047540        0.006019  1716270.312169 10000000.000000       -0.000000
20090629    96819.771966        0.009682  1568751.507824 10000000.000000       -0.000000
20090630   -55279.259562       -0.005528  1830113.159141 10000000.000000       -0.000000
20090701   101552.357959        0.010155  1491395.557203 10000000.000000       -0.000000
20090702   138415.147728        0.013842  1221019.846208 10000000.000000       -0.000000
20090703    89811.577131        0.008981  1552813.950560 10000000.000000       -0.000000
20090706    34185.861247        0.003419  1665642.250464 10000000.000000       -0.000000
20090707    43518.044573        0.004352  1906761.974746 10000000.000000       -0.000000
20090708   123457.007563        0.012346  1703090.573164 10000000.000000       -0.000000
20090709   219016.417476        0.021902  1288811.104636 10000000.000000       -0.000000
20090710    52711.170440        0.005271  1308289.124773 10000000.000000       -0.000000
20090713    94189.199576        0.009419  1439958.970243 10000000.000000       -0.000000
20090714   178851.437379        0.017885  1285888.835567 10000000.000000       -0.000000
20090715   129645.236730        0.012965  1231969.979200 10000000.000000       -0.000000
20090716   -30590.396643       -0.003059  1314797.346248 10000000.000000       -0.000000
20090717    83568.782183        0.008357  1486277.177586 10000000.000000       -0.000000
20090720   191429.668430        0.019143  1431083.339073 10000000.000000       -0.000000
20090721  -217900.015857       -0.021790  1414623.488280 10000000.000000       -0.000000
20090722   153255.948913        0.015326  1447489.598823 10000000.000000       -0.000000
20090723    90224.846856        0.009022  1204157.590278 10000000.000000       -0.000000
20090724   -63287.798174       -0.006329  1425050.162617 10000000.000000       -0.000000
20090727   196536.896817        0.019654  1458471.307094 10000000.000000       -0.000000
20090728   126912.161225        0.012691  1402821.501279 10000000.000000       -0.000000
20090729  -601005.385190       -0.060101  1395907.225581 10000000.000000       -0.000000
20090730    91272.530551        0.009127  1220457.530337 10000000.000000       -0.000000
20090731   314849.168670        0.031485  1392426.383306 10000000.000000       -0.000000
20090803   224431.440333        0.022443  1378150.246300 10000000.000000       -0.000000
20090804   112832.602133        0.011283  1176547.424007 10000000.000000       -0.000000
20090805    55049.586866        0.005505  1238538.758218 10000000.000000       -0.000000
20090806  -104780.793860       -0.010478  1244426.016908 10000000.000000       -0.000000
20090807  -255767.920679       -0.025577  1433695.995658 10000000.000000       -0.000000
20090810    99326.634750        0.009933  1341456.961811 10000000.000000       -0.000000
20090811   103998.707392        0.010400  1524651.484748 10000000.000000       -0.000000
20090812  -464179.899007       -0.046418  1262492.297586 10000000.000000       -0.000000
20090813    40683.010949        0.004068  1679462.791151 10000000.000000       -0.000000
20090814  -461362.437830       -0.046136  1374405.790540 10000000.000000       -0.000000
20090817  -649337.983121       -0.064934  1130896.551188 10000000.000000       -0.000000
20090818   200060.879370        0.020006  1510525.512763 10000000.000000       -0.000000
20090819  -471547.083855       -0.047155  1946955.528483 10000000.000000       -0.000000
20090820   405542.925094        0.040554  1259865.513676 10000000.000000       -0.000000
20090821   323356.568282        0.032336  1543738.765894 10000000.000000       -0.000000
20090824   262312.765030        0.026231  1779406.809295 10000000.000000       -0.000000
20090825  -141786.027534       -0.014179  2343028.910099 10000000.000000       -0.000000
20090826   340043.545482        0.034004  2088941.304218 10000000.000000       -0.000000
20090827   162339.141909        0.016234  1934049.959891 10000000.000000       -0.000000
20090828  -267709.645559       -0.026771  1616572.717081 10000000.000000       -0.000000
20090831  -664252.816207       -0.066425  1961646.238501 10000000.000000       -0.000000
20090901   -12514.471222       -0.001251  2136645.983107 10000000.000000       -0.000000
20090902    65307.340445        0.006531  1297524.928757 10000000.000000       -0.000000
20090903   500010.038943        0.050001  1258239.161563 10000000.000000       -0.000000
20090904   168920.622711        0.016892  1297793.281876 10000000.000000       -0.000000
20090907   130521.636860        0.013052  1503409.855383 10000000.000000       -0.000000
20090908   163824.928846        0.016382  1481800.915851 10000000.000000       -0.000000
20090909    63449.669975        0.006345  1289565.241908 10000000.000000       -0.000000
20090910   -73534.798010       -0.007353  1401922.002720 10000000.000000       -0.000000
20090911   170943.288337        0.017094  1210898.124747 10000000.000000       -0.000000
20090914   264308.351717        0.026431  1311073.313610 10000000.000000       -0.000000
20090915   103212.532787        0.010321  1447241.373271 10000000.000000       -0.000000
20090916    47936.690624        0.004794  1385970.827072 10000000.000000       -0.000000
20090917   255014.546824        0.025501  1458488.540983 10000000.000000       -0.000000
20090918  -301202.879331       -0.030120  1335509.247638 10000000.000000       -0.000000
20090921   166531.788115        0.016653  1496922.873734 10000000.000000       -0.000000
20090922  -193492.435332       -0.019349  1425227.420649 10000000.000000       -0.000000
20090923  -220204.831150       -0.022020  1575717.717134 10000000.000000       -0.000000
20090924   -56454.931242       -0.005645  1186034.080391 10000000.000000       -0.000000
20090925   -40120.180912       -0.004012  1204656.902713 10000000.000000       -0.000000
20090928  -300397.317345       -0.030040  1353809.056674 10000000.000000       -0.000000
20090929  -176414.334174       -0.017641  1297338.452106 10000000.000000       -0.000000
20090930   101056.672534        0.010106  1147902.746424 10000000.000000       -0.000000
20091009   502290.082125        0.050229  1102108.178369 10000000.000000       -0.000000
20091012    85541.029684        0.008554  1306011.807477 10000000.000000       -0.000000
20091013   174073.355707        0.017407  1533716.561336 10000000.000000       -0.000000
20091014   121610.033426        0.012161  1278386.239981 10000000.000000       -0.000000
20091015    68477.314124        0.006848  1206342.921510 10000000.000000       -0.000000
20091016    45364.985825        0.004536  1458606.568005 10000000.000000       -0.000000
20091019   246153.928130        0.024615  1373269.845773 10000000.000000       -0.000000
20091020   173803.961372        0.017380  1353186.337998 10000000.000000       -0.000000
20091021   -59262.011760       -0.005926  1538569.705006 10000000.000000       -0.000000
20091022    36692.616250        0.003669  1579660.900529 10000000.000000       -0.000000
20091023   137170.614788        0.013717  2376010.108862 10000000.000000       -0.000000
20091026    41771.972321        0.004177  2505411.806001 10000000.000000       -0.000000
20091027  -260962.397347       -0.026096  3225878.932662 10000000.000000       -0.000000
20091028   113228.048228        0.011323  2934392.086890 10000000.000000       -0.000000
20091029  -200895.539745       -0.020090  2543686.966393 10000000.000000       -0.000000
20091030   120241.007145        0.012024  2792050.365220 10000000.000000       -0.000000
20091102   317062.434756        0.031706  2317560.278484 10000000.000000       -0.000000
20091103   239977.146930        0.023998  2128747.470699 10000000.000000       -0.000000
20091104    83155.794267        0.008316  1222668.310379 10000000.000000       -0.000000
20091105   117242.252440        0.011724  1232694.727202 10000000.000000       -0.000000
20091106    41180.273926        0.004118  1329579.789892 10000000.000000       -0.000000
20091109    79632.180279        0.007963  1438759.605742 10000000.000000       -0.000000
20091110    25693.783929        0.002569  1374581.433791 10000000.000000       -0.000000
20091111    35018.063773        0.003502  1317708.219614 10000000.000000       -0.000000
20091112    60787.069842        0.006079  1201782.287778 10000000.000000       -0.000000
20091113   151972.306481        0.015197  1402097.254023 10000000.000000       -0.000000
20091116   225533.596492        0.022553  1398816.479693 10000000.000000       -0.000000
20091117    55389.777700        0.005539  1605893.986136 10000000.000000       -0.000000
20091118    50493.262592        0.005049  1432903.791675 10000000.000000       -0.000000
20091119   164326.832026        0.016433  1277813.440430 10000000.000000       -0.000000
20091120   101236.939231        0.010124  1359796.006879 10000000.000000       -0.000000
20091123   184707.421675        0.018471  1474161.454220 10000000.000000       -0.000000
20091124  -499488.246007       -0.049949  1647995.627438 10000000.000000       -0.000000
20091125   360248.614239        0.036025  1508310.450365 10000000.000000       -0.000000
20091126  -402079.505139       -0.040208  1168507.565213 10000000.000000       -0.000000
20091127  -243599.619515       -0.024360  1420195.784853 10000000.000000       -0.000000
20091130   441943.595940        0.044194  1113448.165064 10000000.000000       -0.000000
20091201   293544.579508        0.029354  1121774.107102 10000000.000000       -0.000000
20091202   151354.352941        0.015135   996344.341560 10000000.000000       -0.000000
20091203    97696.492017        0.009770  1245599.525556 10000000.000000       -0.000000
20091204  -219350.403513       -0.021935  1251404.302689 10000000.000000       -0.000000
20091207   178530.523116        0.017853  1400331.292732 10000000.000000       -0.000000
20091208    23648.855219        0.002365  1129675.576197 10000000.000000       -0.000000
20091209  -146603.445619       -0.014660  1070807.423743 10000000.000000       -0.000000
20091210   103520.488049        0.010352  1274532.932310 10000000.000000       -0.000000
20091211    10064.086041        0.001006  1125202.491173 10000000.000000       -0.000000
20091214   -31409.111564       -0.003141  1125825.294073 10000000.000000       -0.000000
20091215    18325.332124        0.001833  1277851.267131 10000000.000000       -0.000000
20091216   -33762.171529       -0.003376  1183347.581644 10000000.000000       -0.000000
20091217  -303383.109529       -0.030338  1195516.066998 10000000.000000       -0.000000
20091218  -334361.177703       -0.033436  1045724.436391 10000000.000000       -0.000000
20091221   135813.570709        0.013581  1309800.953449 10000000.000000       -0.000000
20091222  -269429.417097       -0.026943  1202924.126072 10000000.000000       -0.000000
20091223   176485.045240        0.017649  1348684.895459 10000000.000000       -0.000000
20091224   332014.492405        0.033201  1160433.444983 10000000.000000       -0.000000
20091225    61337.717780        0.006134  1673950.973943 10000000.000000       -0.000000
20091228   153022.938378        0.015302  1533575.618203 10000000.000000       -0.000000
20091229    60453.946611        0.006045  1637290.892808 10000000.000000       -0.000000
20091230   -22768.733288       -0.002277  1298418.144838 10000000.000000       -0.000000
20091231    96289.866079        0.009629  1352922.478185 10000000.000000       -0.000000
20100104    26529.701975        0.002653  1717780.001342 10000000.000000       -0.000000
20100105    98498.614566        0.009850  1693092.676961 10000000.000000       -0.000000
20100106   -27731.864903       -0.002773  1635050.746934 10000000.000000       -0.000000
20100107  -206416.131475       -0.020642  1327007.062133 10000000.000000       -0.000000
20100108    80145.880548        0.008015  1495295.383352 10000000.000000       -0.000000
20100111    47195.475139        0.004720  1561464.869241 10000000.000000       -0.000000
20100112   247261.967947        0.024726  1199558.121935 10000000.000000       -0.000000
20100113   -97050.712708       -0.009705  1236522.372050 10000000.000000       -0.000000
20100114   282105.709631        0.028211  1360393.426194 10000000.000000       -0.000000
20100115   107271.957437        0.010727  1432217.441409 10000000.000000       -0.000000
20100118   153867.709626        0.015387  1730283.967847 10000000.000000       -0.000000
20100119    -2510.973448       -0.000251  1266761.570259 10000000.000000       -0.000000
20100120  -356305.788260       -0.035631  1311287.726884 10000000.000000       -0.000000
20100121    83296.249460        0.008330  1477258.763401 10000000.000000       -0.000000
20100122  -252110.785702       -0.025211  1251671.309372 10000000.000000       -0.000000
20100125  -125231.319349       -0.012523  1754093.919902 10000000.000000       -0.000000
20100126  -374270.623194       -0.037427  1069024.083137 10000000.000000       -0.000000
20100127   -51499.397956       -0.005150   977520.037839 10000000.000000       -0.000000
20100128   102804.101215        0.010280  1054524.239622 10000000.000000       -0.000000
20100129    84373.216546        0.008437  1053487.399542 10000000.000000       -0.000000
20100201  -157804.963505       -0.015780  1144064.079209 10000000.000000       -0.000000
20100202   -52896.518204       -0.005290  1241784.348050 10000000.000000       -0.000000
20100203   158873.720312        0.015887   990084.393286 10000000.000000       -0.000000
20100204    56470.804148        0.005647  1372970.686601 10000000.000000       -0.000000
20100205  -211455.755952       -0.021146  1060141.902949 10000000.000000       -0.000000
20100208    27724.941457        0.002772  1347219.743009 10000000.000000       -0.000000
20100209    34966.853569        0.003497  1426861.521312 10000000.000000       -0.000000
20100210   173292.456818        0.017329  1254535.045953 10000000.000000       -0.000000
20100211     5944.442260        0.000594  1564200.041494 10000000.000000       -0.000000
20100212   125184.420117        0.012518  1337227.192460 10000000.000000       -0.000000
20100222   -14403.878311       -0.001440  1422043.276854 10000000.000000       -0.000000
20100223    57071.286913        0.005707  1433558.863579 10000000.000000       -0.000000
20100224   253598.966266        0.025360  1417204.897928 10000000.000000       -0.000000
20100225   186851.283928        0.018685  1261026.215226 10000000.000000       -0.000000
20100226     7539.299804        0.000754  1657349.872390 10000000.000000       -0.000000
20100301   122923.885652        0.012292  1729276.692311 10000000.000000       -0.000000
20100302    37745.524346        0.003775  1606202.888155 10000000.000000       -0.000000
20100303   124702.301689        0.012470  1792102.762605 10000000.000000       -0.000000
20100304  -307820.337415       -0.030782  1750206.435294 10000000.000000       -0.000000
20100305    37342.623936        0.003734  1788671.869961 10000000.000000       -0.000000
20100308   128826.961009        0.012883  1543029.772247 10000000.000000       -0.000000
20100309    46222.313658        0.004622  1586034.134845 10000000.000000       -0.000000
20100310  -110528.076383       -0.011053  1502661.775599 10000000.000000       -0.000000
20100311   -33896.142244       -0.003390  1306553.543109 10000000.000000       -0.000000
20100312  -115597.693132       -0.011560  1238246.019195 10000000.000000       -0.000000
20100315   -93180.595434       -0.009318  1391474.763493 10000000.000000       -0.000000
20100316    95070.814644        0.009507  1170989.138201 10000000.000000       -0.000000
20100317   261970.054465        0.026197  1157411.779343 10000000.000000       -0.000000
20100318    33386.894566        0.003339  1217169.813197 10000000.000000       -0.000000
20100319    91026.351752        0.009103  1621618.121605 10000000.000000       -0.000000
20100322    58310.001888        0.005831  1521224.230437 10000000.000000       -0.000000
20100323   -39075.952688       -0.003908  1415463.134187 10000000.000000       -0.000000
20100324    64495.676971        0.006450  1697403.286639 10000000.000000       -0.000000
20100325  -108482.012427       -0.010848  1391348.389032 10000000.000000       -0.000000
20100326   132717.892355        0.013272  1564861.693884 10000000.000000       -0.000000
20100329    89847.811990        0.008985  2206757.217956 10000000.000000       -0.000000
20100330    61425.126064        0.006143  2108936.686393 10000000.000000       -0.000000
20100331    44121.629368        0.004412  2080173.467211 10000000.000000       -0.000000
20100401   144841.492941        0.014484  2082949.131634 10000000.000000       -0.000000
20100402    58511.582347        0.005851  1449680.126878 10000000.000000       -0.000000
20100406    65844.055106        0.006584  1876529.167790 10000000.000000       -0.000000
20100407    42444.628316        0.004244  1797791.944606 10000000.000000       -0.000000
20100408     2108.476962        0.000211  1580362.651459 10000000.000000       -0.000000
20100409   156252.080623        0.015625  1926296.560761 10000000.000000       -0.000000
20100412    93162.042827        0.009316  1749071.274564 10000000.000000       -0.000000
20100413  -174751.006732       -0.017475  1944184.821793 10000000.000000       -0.000000
20100414    83625.628726        0.008363  1858562.625374 10000000.000000       -0.000000
20100415  -103987.340921       -0.010399  1469944.429543 10000000.000000       -0.000000
20100416      990.771450        0.000099  2075609.473567 10000000.000000       -0.000000
20100419  -361982.827403       -0.036198  2357294.406540 10000000.000000       -0.000000
20100420   103919.484058        0.010392  1889314.601175 10000000.000000       -0.000000
20100421   285133.259578        0.028513  2278742.721386 10000000.000000       -0.000000
20100422    25966.659107        0.002597  1971768.972952 10000000.000000       -0.000000
20100423   -55635.364187       -0.005564  3442366.915023 10000000.000000       -0.000000
20100426    -7749.793815       -0.000775  3852288.203957 10000000.000000       -0.000000
20100427  -258180.776085       -0.025818  4330548.296859 10000000.000000       -0.000000
20100428   -14438.892876       -0.001444  3225220.117695 10000000.000000       -0.000000
20100429  -244638.371688       -0.024464  3295020.194581 10000000.000000       -0.000000
20100430  -243255.783151       -0.024326  3714290.868888 10000000.000000       -0.000000
20100504   -41155.719136       -0.004116  3186444.868882 10000000.000000       -0.000000
20100505   287167.721483        0.028717  1576414.356146 10000000.000000       -0.000000
20100506  -328204.744219       -0.032820  1547962.788304 10000000.000000       -0.000000
20100507  -171780.002733       -0.017178  1705305.942188 10000000.000000       -0.000000
20100510  -102532.768724       -0.010253  1444019.381925 10000000.000000       -0.000000
20100511  -214702.269305       -0.021470  1814946.682195 10000000.000000       -0.000000
20100512  -178690.145935       -0.017869  1213068.411726 10000000.000000       -0.000000
20100513   250860.073038        0.025086  1645146.991868 10000000.000000       -0.000000
20100514    34120.704460        0.003412  1700457.755561 10000000.000000       -0.000000
20100517  -629947.146217       -0.062995  1977616.628675 10000000.000000       -0.000000
20100518   144491.733135        0.014449  1629524.857203 10000000.000000       -0.000000
20100519     6970.843239        0.000697  2034281.425137 10000000.000000       -0.000000
20100520  -155494.505709       -0.015549  1840256.894479 10000000.000000       -0.000000
20100521   204288.572248        0.020429  1599957.963311 10000000.000000       -0.000000
20100524   459038.576263        0.045904  2012418.858686 10000000.000000       -0.000000
20100525   -70243.185424       -0.007024  1743710.908859 10000000.000000       -0.000000
20100526    45892.299799        0.004589  2031958.958871 10000000.000000       -0.000000
20100527   191984.912418        0.019198  1680092.203530 10000000.000000       -0.000000
20100528    72156.548530        0.007216  1721752.313723 10000000.000000       -0.000000
20100531  -292887.877668       -0.029289  2132384.082781 10000000.000000       -0.000000
20100601  -162389.501503       -0.016239  1604178.686969 10000000.000000       -0.000000
20100602   173555.540771        0.017356  1596089.687530 10000000.000000       -0.000000
20100603   -55455.213981       -0.005546  1346320.051069 10000000.000000       -0.000000
20100604   112415.438638        0.011242  1339605.961268 10000000.000000       -0.000000
20100607    -4715.532786       -0.000472  1642417.998424 10000000.000000       -0.000000
20100608   142328.434902        0.014233  1579959.369926 10000000.000000       -0.000000
20100609   268994.696649        0.026899  1322897.020811 10000000.000000       -0.000000
20100610    19458.753578        0.001946  1298132.379646 10000000.000000       -0.000000
20100611   -15863.940787       -0.001586  1556032.909101 10000000.000000       -0.000000
20100617   -65074.247151       -0.006507  1273347.575677 10000000.000000       -0.000000
20100618  -367835.263695       -0.036784  1646470.545323 10000000.000000       -0.000000
20100621   289321.158637        0.028932  1314667.738487 10000000.000000       -0.000000
20100622    85202.119628        0.008520  1464495.479778 10000000.000000       -0.000000
20100623   -12482.214192       -0.001248  1499556.660957 10000000.000000       -0.000000
20100624    17445.613481        0.001745  1507135.305997 10000000.000000       -0.000000
20100625  -147438.461186       -0.014744  1815614.228151 10000000.000000       -0.000000
20100628  -149357.601345       -0.014936  1810638.743334 10000000.000000       -0.000000
20100629  -569940.593271       -0.056994  1558883.681568 10000000.000000       -0.000000
20100630  -159028.277879       -0.015903  1589180.488821 10000000.000000       -0.000000
20100701  -110277.119414       -0.011028  1597251.608751 10000000.000000       -0.000000
20100702   -39184.190957       -0.003918  1046580.487770 10000000.000000       -0.000000
20100705   -45228.752770       -0.004523  1141424.427356 10000000.000000       -0.000000
20100706   272108.445496        0.027211  1411897.356402 10000000.000000       -0.000000
20100707   128502.509074        0.012850  1554931.854517 10000000.000000       -0.000000
20100708   -12984.636285       -0.001298  1618513.637729 10000000.000000       -0.000000
20100709   298774.965254        0.029877  1116477.170605 10000000.000000       -0.000000
20100712   148384.443823        0.014838  1166435.286701 10000000.000000       -0.000000
20100713  -127186.106278       -0.012719  1382865.616895 10000000.000000       -0.000000
20100714   124286.113488        0.012429  1351683.063172 10000000.000000       -0.000000
20100715  -227852.520417       -0.022785  1461446.056086 10000000.000000       -0.000000
20100716    52398.748924        0.005240  1340939.392450 10000000.000000       -0.000000
20100719   221105.429449        0.022111  1376959.210842 10000000.000000       -0.000000
20100720   297346.339604        0.029735  1487372.897169 10000000.000000       -0.000000
20100721    39644.133285        0.003964  1393777.835573 10000000.000000       -0.000000
20100722   151015.970143        0.015102  1340282.429613 10000000.000000       -0.000000
20100723    35117.843671        0.003512  1494134.793625 10000000.000000       -0.000000
20100726   134978.950500        0.013498  1636853.877572 10000000.000000       -0.000000
20100727    -7244.801337       -0.000724  1629766.212709 10000000.000000       -0.000000
20100728   219857.161842        0.021986  1586375.169589 10000000.000000       -0.000000
20100729    92678.336018        0.009268  1570338.757762 10000000.000000       -0.000000
20100730     2712.924815        0.000271  2063751.562126 10000000.000000       -0.000000
20100802   208448.692154        0.020845  1856747.487668 10000000.000000       -0.000000
20100803  -157604.496364       -0.015760  1408682.685416 10000000.000000       -0.000000
20100804   109148.144035        0.010915  1656178.175482 10000000.000000       -0.000000
20100805    46482.617164        0.004648  1388368.447379 10000000.000000       -0.000000
20100806   199521.703787        0.019952  1594405.365248 10000000.000000       -0.000000
20100809   158133.335856        0.015813  1297578.075835 10000000.000000       -0.000000
20100810  -333379.081462       -0.033338  1500927.541872 10000000.000000       -0.000000
20100811   133257.469271        0.013326  2008299.954532 10000000.000000       -0.000000
20100812   -98020.165083       -0.009802  1644705.099489 10000000.000000       -0.000000
20100813   196598.790043        0.019660  1499311.437408 10000000.000000       -0.000000
20100816   214497.264484        0.021450  1512240.341382 10000000.000000       -0.000000
20100817   102192.126176        0.010219  1699548.151999 10000000.000000       -0.000000
20100818    -7039.758158       -0.000704  1635650.158080 10000000.000000       -0.000000
20100819    35347.009342        0.003535  2202406.568053 10000000.000000       -0.000000
20100820  -207539.371491       -0.020754  1530757.220565 10000000.000000       -0.000000
20100823    82255.452130        0.008226  2139870.926875 10000000.000000       -0.000000
20100824   156986.105010        0.015699  2376258.013591 10000000.000000       -0.000000
20100825  -203010.500543       -0.020301  1712949.316396 10000000.000000       -0.000000
20100826    72585.707448        0.007259  1995804.893626 10000000.000000       -0.000000
20100827   102800.234948        0.010280  1922569.414400 10000000.000000       -0.000000
20100830   259333.586032        0.025933  2052937.388519 10000000.000000       -0.000000
20100831    71303.292569        0.007130  2044441.975304 10000000.000000       -0.000000
20100901  -122614.827745       -0.012261  1613618.752633 10000000.000000       -0.000000
20100902   229837.123846        0.022984  1391271.978860 10000000.000000       -0.000000
20100903   105411.478202        0.010541  1375812.718054 10000000.000000       -0.000000
20100906    15323.920916        0.001532  1623769.877060 10000000.000000       -0.000000
20100907    68904.116337        0.006890  1476514.724306 10000000.000000       -0.000000
20100908    64304.399606        0.006430  1453436.211107 10000000.000000       -0.000000
20100909  -131119.945409       -0.013112  1523246.466793 10000000.000000       -0.000000
20100910   114532.977600        0.011453  1509845.621236 10000000.000000       -0.000000
20100913   171406.403317        0.017141  1588126.645345 10000000.000000       -0.000000
20100914    32734.454620        0.003273  1620525.141282 10000000.000000       -0.000000
20100915  -171857.284495       -0.017186  1365733.759008 10000000.000000       -0.000000
20100916  -214818.967393       -0.021482  1832368.116335 10000000.000000       -0.000000
20100917    10751.107595        0.001075  1482508.988122 10000000.000000       -0.000000
20100920  -107533.806502       -0.010753  1526040.130365 10000000.000000       -0.000000
20100921   -14194.582262       -0.001419  1544568.230064 10000000.000000       -0.000000
20100927   239863.415965        0.023986  1121985.961842 10000000.000000       -0.000000
20100928   -62088.674278       -0.006209  1768333.371166 10000000.000000       -0.000000
20100929  -102585.439834       -0.010259  1578436.569877 10000000.000000       -0.000000
20100930   164749.143191        0.016475  1393597.472228 10000000.000000       -0.000000
20101008   246014.643849        0.024601  1382723.236758 10000000.000000       -0.000000
20101011    73150.626016        0.007315  1273487.856428 10000000.000000       -0.000000
20101012    75524.499195        0.007552  1698727.031464 10000000.000000       -0.000000
20101013    73547.950386        0.007355  1701225.035824 10000000.000000       -0.000000
20101014  -265762.427558       -0.026576  1456681.756319 10000000.000000       -0.000000
20101015   -39244.379266       -0.003924  1480366.958301 10000000.000000       -0.000000
20101018   -84860.116608       -0.008486  1550698.775462 10000000.000000       -0.000000
20101019   323588.216339        0.032359  1514988.268477 10000000.000000       -0.000000
20101020    26202.343428        0.002620  1619685.404189 10000000.000000       -0.000000
20101021    71872.919532        0.007187  1488799.152970 10000000.000000       -0.000000
20101022   125081.133195        0.012508  1539456.597494 10000000.000000       -0.000000
20101025   263934.710849        0.026393  1927558.175866 10000000.000000       -0.000000
20101026    69813.473717        0.006981  2526132.630245 10000000.000000       -0.000000
20101027   -45897.546119       -0.004590  2258171.618903 10000000.000000       -0.000000
20101028    25808.918087        0.002581  2097088.039307 10000000.000000       -0.000000
20101029   108143.023088        0.010814  2287574.512300 10000000.000000       -0.000000
20101101   274222.595404        0.027422  2350713.455706 10000000.000000       -0.000000
20101102    22339.953129        0.002234  2343105.042735 10000000.000000       -0.000000
20101103  -122683.682136       -0.012268  1269673.291575 10000000.000000       -0.000000
20101104   195649.812714        0.019565  1444714.912010 10000000.000000       -0.000000
20101105   133102.747726        0.013310  1328713.995561 10000000.000000       -0.000000
20101108   201085.331397        0.020109  1387048.543176 10000000.000000       -0.000000
20101109    59023.304473        0.005902  1468214.589147 10000000.000000       -0.000000
20101110    92816.868931        0.009282  1253537.613981 10000000.000000       -0.000000
20101111   -75428.479213       -0.007543  1339583.260799 10000000.000000       -0.000000
20101112  -628945.133947       -0.062895  1463301.166107 10000000.000000       -0.000000
20101115   276232.301776        0.027623  1554114.073263 10000000.000000       -0.000000
20101116  -280380.456397       -0.028038  1315145.123761 10000000.000000       -0.000000
20101117  -255701.442068       -0.025570  1381750.342666 10000000.000000       -0.000000
20101118   145890.200343        0.014589  1114221.189848 10000000.000000       -0.000000
20101119   276397.970321        0.027640  1201510.004274 10000000.000000       -0.000000
20101122   153724.071043        0.015372  1214501.119821 10000000.000000       -0.000000
20101123  -141443.336172       -0.014144  1325781.024687 10000000.000000       -0.000000
20101124   277077.797223        0.027708  1314150.977115 10000000.000000       -0.000000
20101125   110870.335909        0.011087   934890.677923 10000000.000000       -0.000000
20101126   -40517.440690       -0.004052  1260149.995664 10000000.000000       -0.000000
20101129    43661.676066        0.004366  1148564.115713 10000000.000000       -0.000000
20101130  -249452.185074       -0.024945  1364417.556930 10000000.000000       -0.000000
20101201    24030.964409        0.002403  1299222.943869 10000000.000000       -0.000000
20101202    68834.877295        0.006883  1105065.664309 10000000.000000       -0.000000
20101203   -49095.148130       -0.004910  1158936.348224 10000000.000000       -0.000000
20101206  -113591.354444       -0.011359  1343868.813547 10000000.000000       -0.000000
20101207   155714.475677        0.015571  1331173.949579 10000000.000000       -0.000000
20101208   -28390.506686       -0.002839  1355105.307238 10000000.000000       -0.000000
20101209  -175252.430604       -0.017525  1323085.431721 10000000.000000       -0.000000
20101210   130562.565017        0.013056  1261145.610874 10000000.000000       -0.000000
20101213   292659.092793        0.029266  1467531.803912 10000000.000000       -0.000000
20101214   108437.839855        0.010844  1471849.605331 10000000.000000       -0.000000
20101215    -4611.920842       -0.000461  1105087.853171 10000000.000000       -0.000000
20101216    18753.826553        0.001875  1434181.294400 10000000.000000       -0.000000
20101217    17998.595262        0.001800  1278005.357609 10000000.000000       -0.000000
20101220  -126351.862135       -0.012635  1474171.395594 10000000.000000       -0.000000
20101221   106401.845601        0.010640  1615900.229596 10000000.000000       -0.000000
20101222   -73894.506522       -0.007389  1514551.397967 10000000.000000       -0.000000
20101223  -152439.184764       -0.015244  1476911.363064 10000000.000000       -0.000000
20101224  -174022.467022       -0.017402  1201414.257483 10000000.000000       -0.000000
20101227  -248868.307966       -0.024887  1247414.862979 10000000.000000       -0.000000
20101228  -170669.421695       -0.017067  1408397.159555 10000000.000000       -0.000000
20101229   159867.883133        0.015987  1224794.583198 10000000.000000       -0.000000
20101230    44501.866079        0.004450  1246691.421005 10000000.000000       -0.000000
20101231   211185.652201        0.021119  1551099.619479 10000000.000000       -0.000000
20110104   155883.191667        0.015588  1448387.259833 10000000.000000       -0.000000
20110105    10270.806684        0.001027  1461956.093931 10000000.000000       -0.000000
20110106   -32016.446189       -0.003202  1215441.181084 10000000.000000       -0.000000
20110107   -26411.159960       -0.002641  1391339.044784 10000000.000000       -0.000000
20110110  -234433.166779       -0.023443  1512211.062608 10000000.000000       -0.000000
20110111   -63169.216806       -0.006317  1963453.769006 10000000.000000       -0.000000
20110112    69353.651390        0.006935  1008944.113670 10000000.000000       -0.000000
20110113    13928.534814        0.001393  1177047.335452 10000000.000000       -0.000000
20110114  -201122.559105       -0.020112  1312240.699561 10000000.000000       -0.000000
20110117  -396349.594368       -0.039635  1179268.182113 10000000.000000       -0.000000
20110118    45831.886181        0.004583  1154727.587731 10000000.000000       -0.000000
20110119   224344.006949        0.022434  1017797.275249 10000000.000000       -0.000000
20110120  -347181.326520       -0.034718  1225384.845240 10000000.000000       -0.000000
20110121    79245.933564        0.007925  1094094.397998 10000000.000000       -0.000000
20110124  -180173.962880       -0.018017  1214715.245896 10000000.000000       -0.000000
20110125  -129726.191165       -0.012973  1119872.952913 10000000.000000       -0.000000
20110126   168723.280051        0.016872   939405.589278 10000000.000000       -0.000000
20110127   148445.768925        0.014845  1244849.481923 10000000.000000       -0.000000
20110128   110723.460372        0.011072  1230795.719787 10000000.000000       -0.000000
20110131   127082.575419        0.012708  1366435.630766 10000000.000000       -0.000000
20110201    36627.755148        0.003663  1311987.657705 10000000.000000       -0.000000
20110209   -66882.762819       -0.006688  1048390.319630 10000000.000000       -0.000000
20110210   287040.732312        0.028704  1237174.370576 10000000.000000       -0.000000
20110211   121551.855749        0.012155  1222154.783370 10000000.000000       -0.000000
20110214   176528.575097        0.017653  1489977.211037 10000000.000000       -0.000000
20110215    16587.366120        0.001659  1438676.742797 10000000.000000       -0.000000
20110216   163449.972214        0.016345  1281998.652954 10000000.000000       -0.000000
20110217    54541.724905        0.005454  1336227.943627 10000000.000000       -0.000000
20110218   -77236.321522       -0.007724  1244650.727498 10000000.000000       -0.000000
20110221   184379.775530        0.018438  1519980.489409 10000000.000000       -0.000000
20110222  -242877.524578       -0.024288  1604342.383680 10000000.000000       -0.000000
20110223   127067.771065        0.012707  1587627.577608 10000000.000000       -0.000000
20110224    84049.725247        0.008405  1509066.012186 10000000.000000       -0.000000
20110225    33866.693075        0.003387  1387742.835544 10000000.000000       -0.000000
20110228   120976.269848        0.012098  1647680.733694 10000000.000000       -0.000000
20110301    63205.435965        0.006321  1635101.458488 10000000.000000       -0.000000
20110302   -15547.623741       -0.001555  1400931.625974 10000000.000000       -0.000000
20110303  -144301.933973       -0.014430  1290427.645242 10000000.000000       -0.000000
20110304   130263.228350        0.013026  1246419.580694 10000000.000000       -0.000000
20110307   128287.018327        0.012829  1220817.756164 10000000.000000       -0.000000
20110308    53551.199335        0.005355  1404101.791141 10000000.000000       -0.000000
20110309    33581.001244        0.003358  1416678.461283 10000000.000000       -0.000000
20110310   -23397.736817       -0.002340  1270927.406679 10000000.000000       -0.000000
20110311    -9525.703080       -0.000953  1431206.871471 10000000.000000       -0.000000
20110314    94707.214584        0.009471  1440559.453967 10000000.000000       -0.000000
20110315  -126675.014576       -0.012668  1679362.228879 10000000.000000       -0.000000
20110316   135893.562897        0.013589  1618904.538936 10000000.000000       -0.000000
20110317  -184797.724669       -0.018480  1380573.130629 10000000.000000       -0.000000
20110318    79328.783638        0.007933  1297526.222217 10000000.000000       -0.000000
20110321   -31806.209802       -0.003181  1815447.851931 10000000.000000       -0.000000
20110322    11428.796869        0.001143  1574208.802787 10000000.000000       -0.000000
20110323   103691.427959        0.010369  1570451.123221 10000000.000000       -0.000000
20110324    22449.701263        0.002245  1502138.206513 10000000.000000       -0.000000
20110325    70159.570278        0.007016  1387399.168297 10000000.000000       -0.000000
20110328   -37627.930565       -0.003763  1823833.184397 10000000.000000       -0.000000
20110329  -144523.243977       -0.014452  2452741.066114 10000000.000000       -0.000000
20110330   -84632.756566       -0.008463  1978179.882509 10000000.000000       -0.000000
20110331   -72999.769565       -0.007300  1876664.358695 10000000.000000       -0.000000
20110401   118656.169521        0.011866  1956627.987636 10000000.000000       -0.000000
20110406   -28721.404265       -0.002872  1397233.699097 10000000.000000       -0.000000
20110407    79446.996535        0.007945  1825316.933852 10000000.000000       -0.000000
20110408   119406.936209        0.011941  1404169.535445 10000000.000000       -0.000000
20110411   -74807.873403       -0.007481  2074857.705633 10000000.000000       -0.000000
20110412    -4863.802298       -0.000486  1822664.826481 10000000.000000       -0.000000
20110413   114455.133100        0.011446  1849700.995956 10000000.000000       -0.000000
20110414    -5871.217962       -0.000587  1762909.991277 10000000.000000       -0.000000
20110415   -10278.560183       -0.001028  1480783.578358 10000000.000000       -0.000000
20110418    16869.295765        0.001687  2590649.686997 10000000.000000       -0.000000
20110419   -71872.432976       -0.007187  2265195.924147 10000000.000000       -0.000000
20110420    92315.614113        0.009232  2268491.293029 10000000.000000       -0.000000
20110421    88704.046272        0.008870  2433712.654923 10000000.000000       -0.000000
20110422   -33784.440200       -0.003378  2284276.821365 10000000.000000       -0.000000
20110425  -189040.850092       -0.018904  3699650.622257 10000000.000000       -0.000000
20110426  -142155.785700       -0.014216  3342572.936056 10000000.000000       -0.000000
20110427  -107633.127564       -0.010763  3329262.026713 10000000.000000       -0.000000
20110428  -275424.943576       -0.027542  2927114.874743 10000000.000000       -0.000000
20110429   136411.573741        0.013641  3028508.505831 10000000.000000       -0.000000
20110503   131365.411359        0.013137  3241578.562528 10000000.000000       -0.000000
20110504  -204450.667066       -0.020445  2107849.896655 10000000.000000       -0.000000
20110505    69286.838108        0.006929  1177557.909332 10000000.000000       -0.000000
20110506    56602.629814        0.005660  1328835.587650 10000000.000000       -0.000000
20110509    90544.123251        0.009054  1950233.805017 10000000.000000       -0.000000
20110510    61580.672910        0.006158  1782286.789850 10000000.000000       -0.000000
20110511    52324.161220        0.005232  2032302.224703 10000000.000000       -0.000000
20110512  -125799.445812       -0.012580  1536786.734110 10000000.000000       -0.000000
20110513    91975.158019        0.009198  1544678.449492 10000000.000000       -0.000000
20110516    11530.895018        0.001153  1952263.721749 10000000.000000       -0.000000
20110517    -7467.677143       -0.000747  1795873.858960 10000000.000000       -0.000000
20110518    53839.098810        0.005384  2292440.147922 10000000.000000       -0.000000
20110519   -33455.732932       -0.003346  2133992.871286 10000000.000000       -0.000000
20110520   -49069.873967       -0.004907  1667277.552627 10000000.000000       -0.000000
20110523  -365284.079417       -0.036528  2223434.687620 10000000.000000       -0.000000
20110524    63616.073336        0.006362  1537376.998820 10000000.000000       -0.000000
20110525  -159224.359450       -0.015922  1575104.747575 10000000.000000       -0.000000
20110526   -74886.208004       -0.007489  2140093.481549 10000000.000000       -0.000000
20110527  -257071.960622       -0.025707  1602622.667009 10000000.000000       -0.000000
20110530  -103664.352712       -0.010366  1845597.385432 10000000.000000       -0.000000
20110531   227612.824753        0.022761  1554927.325598 10000000.000000       -0.000000
20110601   106177.937979        0.010618  1417479.403099 10000000.000000       -0.000000
20110602  -131842.351108       -0.013184  1611572.504654 10000000.000000       -0.000000
20110603   170181.642956        0.017018  1338769.112391 10000000.000000       -0.000000
20110607    97420.456945        0.009742  1328405.130402 10000000.000000       -0.000000
20110608    28350.027866        0.002835  1338230.420756 10000000.000000       -0.000000
20110609  -214892.601704       -0.021489  1450529.563374 10000000.000000       -0.000000
20110610   -12608.220143       -0.001261  1413927.681227 10000000.000000       -0.000000
20110613   -26232.228130       -0.002623  1396926.476457 10000000.000000       -0.000000
20110614   162275.701956        0.016228  1113988.708979 10000000.000000       -0.000000
20110615   -73879.230902       -0.007388  1285058.826225 10000000.000000       -0.000000
20110616  -189129.099875       -0.018913  1460502.243759 10000000.000000       -0.000000
20110617  -112259.324408       -0.011226  1299354.331321 10000000.000000       -0.000000
20110620  -124285.571571       -0.012429  1432645.263655 10000000.000000       -0.000000
20110621   142770.683750        0.014277  1240061.782893 10000000.000000       -0.000000
20110622    11392.689429        0.001139  1432173.370953 10000000.000000       -0.000000
20110623   222776.450318        0.022278  1310848.605514 10000000.000000       -0.000000
20110624   251821.538301        0.025182  1437485.685245 10000000.000000       -0.000000
20110627   126836.973735        0.012684  1680900.160352 10000000.000000       -0.000000
20110628    39816.606893        0.003982  1515717.385889 10000000.000000       -0.000000
20110629  -107936.806251       -0.010794  1453839.895140 10000000.000000       -0.000000
20110630   122466.495161        0.012247  1493879.751802 10000000.000000       -0.000000
20110701    61242.028210        0.006124  1555974.396207 10000000.000000       -0.000000
20110704   223906.351032        0.022391  1529843.967338 10000000.000000       -0.000000
20110705    84274.067283        0.008427  1426541.784037 10000000.000000       -0.000000
20110706    37149.578114        0.003715  1387823.404348 10000000.000000       -0.000000
20110707    16803.595400        0.001680  1367518.126921 10000000.000000       -0.000000
20110708   -13196.476314       -0.001320  1562447.850726 10000000.000000       -0.000000
20110711    85216.613574        0.008522  1214631.767557 10000000.000000       -0.000000
20110712  -169771.006167       -0.016977  1297135.016793 10000000.000000       -0.000000
20110713   193943.824448        0.019394  1334957.577838 10000000.000000       -0.000000
20110714   149391.022536        0.014939  1162480.212276 10000000.000000       -0.000000
20110715    92866.366182        0.009287  1313423.794160 10000000.000000       -0.000000
20110718    27635.509075        0.002764  1336651.079278 10000000.000000       -0.000000
20110719  -100828.447631       -0.010083  1394009.401272 10000000.000000       -0.000000
20110720    28504.555629        0.002850  1226607.157015 10000000.000000       -0.000000
20110721  -114953.329162       -0.011495  1322231.677930 10000000.000000       -0.000000
20110722    51076.478715        0.005108  1205117.580020 10000000.000000       -0.000000
20110725  -410060.360493       -0.041006  1290876.582127 10000000.000000       -0.000000
20110726    52432.162278        0.005243  1293546.283001 10000000.000000       -0.000000
20110727   161219.930265        0.016122  1075302.735338 10000000.000000       -0.000000
20110728   -34011.992560       -0.003401  1479786.771608 10000000.000000       -0.000000
20110729   -65030.225127       -0.006503  1146418.998887 10000000.000000       -0.000000
20110801    66875.621108        0.006688  1427627.885762 10000000.000000       -0.000000
20110802   -50471.766366       -0.005047  1638010.427806 10000000.000000       -0.000000
20110803    81455.921730        0.008146  1333295.423712 10000000.000000       -0.000000
20110804    73956.229766        0.007396  1352871.218077 10000000.000000       -0.000000
20110805  -225386.341697       -0.022539  1242366.602669 10000000.000000       -0.000000
20110808  -511173.167496       -0.051117  1452583.187357 10000000.000000       -0.000000
20110809   -30414.227919       -0.003041  1442952.069472 10000000.000000       -0.000000
20110810   158667.253104        0.015867  1369628.133976 10000000.000000       -0.000000
20110811   186935.053700        0.018694  1304435.328125 10000000.000000       -0.000000
20110812   144009.955526        0.014401  1289914.865355 10000000.000000       -0.000000
20110815   164101.910958        0.016410  1631286.734880 10000000.000000       -0.000000
20110816   -57311.093487       -0.005731  1501832.074933 10000000.000000       -0.000000
20110817     7902.174342        0.000790  1762253.592783 10000000.000000       -0.000000
20110818  -166251.678566       -0.016625  1615252.526780 10000000.000000       -0.000000
20110819   -73581.384498       -0.007358  1634583.105430 10000000.000000       -0.000000
20110822    -2586.908372       -0.000259  1711827.164431 10000000.000000       -0.000000
20110823   181506.468094        0.018151  1875940.541175 10000000.000000       -0.000000
20110824     3170.777718        0.000317  1728265.672762 10000000.000000       -0.000000
20110825   188942.787705        0.018894  1615070.454389 10000000.000000       -0.000000
20110826    43780.122402        0.004378  1651764.575800 10000000.000000       -0.000000
20110829   -64008.651267       -0.006401  1702962.188120 10000000.000000       -0.000000
20110830   -81430.007006       -0.008143  2093713.838398 10000000.000000       -0.000000
20110831   -39091.567914       -0.003909  1785657.461259 10000000.000000       -0.000000
20110901   -45747.441511       -0.004575  1703679.412914 10000000.000000       -0.000000
20110902  -105007.059170       -0.010501  1131575.751311 10000000.000000       -0.000000
20110905  -228108.732757       -0.022811  1311845.900848 10000000.000000       -0.000000
20110906   -52853.445629       -0.005285  1126876.336147 10000000.000000       -0.000000
20110907   233984.613642        0.023398  1301629.996658 10000000.000000       -0.000000
20110908   -92641.205340       -0.009264  1170732.544548 10000000.000000       -0.000000
20110909   -42481.071306       -0.004248  1375859.362569 10000000.000000       -0.000000
20110913  -139860.683216       -0.013986  1383516.661372 10000000.000000       -0.000000
20110914   105166.285148        0.010517  1343915.109128 10000000.000000       -0.000000
20110915    24101.996853        0.002410  1346373.082672 10000000.000000       -0.000000
20110916     7276.424050        0.000728  1281406.577861 10000000.000000       -0.000000
20110919  -187513.741465       -0.018751  1543965.525649 10000000.000000       -0.000000
20110920    44536.358690        0.004454  1166402.850819 10000000.000000       -0.000000
20110921   279731.402834        0.027973  1336942.605829 10000000.000000       -0.000000
20110922  -291798.666811       -0.029180  1300846.017911 10000000.000000       -0.000000
20110923   -83135.464368       -0.008314  1261258.523524 10000000.000000       -0.000000
20110926  -156705.949158       -0.015671  1356573.719873 10000000.000000       -0.000000
20110927    45052.821902        0.004505  1212921.959511 10000000.000000       -0.000000
20110928  -136746.909889       -0.013675  1201574.964635 10000000.000000       -0.000000
20110929  -296579.399323       -0.029658  1085405.466967 10000000.000000       -0.000000
20110930    -4773.376126       -0.000477  1275216.952236 10000000.000000       -0.000000
20111010   -45642.121796       -0.004564  1294255.511792 10000000.000000       -0.000000
20111011   -19402.588424       -0.001940  1854232.902304 10000000.000000       -0.000000
20111012   349051.231026        0.034905  1024080.016789 10000000.000000       -0.000000
20111013   148986.450239        0.014899  1133072.485898 10000000.000000       -0.000000
20111014   -39898.400651       -0.003990  1324846.942740 10000000.000000       -0.000000
20111017    52617.686814        0.005262  1479346.242233 10000000.000000       -0.000000
20111018  -277062.748645       -0.027706  1387475.396293 10000000.000000       -0.000000
20111019   -33862.693113       -0.003386  1578104.744401 10000000.000000       -0.000000
20111020  -284905.085166       -0.028491  1204494.236544 10000000.000000       -0.000000
20111021  -156843.214172       -0.015684  1267636.949881 10000000.000000       -0.000000
20111024   158386.390489        0.015839  1435261.510431 10000000.000000       -0.000000
20111025   286639.415890        0.028664  2821549.290653 10000000.000000       -0.000000
20111026   113037.709168        0.011304  2652832.159539 10000000.000000       -0.000000
20111027    19923.728801        0.001992  2764076.917197 10000000.000000       -0.000000
20111028   224569.593826        0.022457  2151747.337443 10000000.000000       -0.000000
20111031    78905.782167        0.007891  2530568.172006 10000000.000000       -0.000000
20111101    19829.777577        0.001983  2601151.714886 10000000.000000       -0.000000
20111102   182718.123307        0.018272  1317209.046315 10000000.000000       -0.000000
20111103    67173.914536        0.006717  1330717.893106 10000000.000000       -0.000000
20111104    72315.388351        0.007232  1212424.563539 10000000.000000       -0.000000
20111107   -25437.600152       -0.002544  1302464.630658 10000000.000000       -0.000000
20111108  -107579.549341       -0.010758  1500873.038161 10000000.000000       -0.000000
20111109   166047.331612        0.016605  1223122.863145 10000000.000000       -0.000000
20111110  -101530.865875       -0.010153  1170402.112039 10000000.000000       -0.000000
20111111    15656.793879        0.001566  1468785.069665 10000000.000000       -0.000000
20111114   260335.632417        0.026034  1375652.461611 10000000.000000       -0.000000
20111115    62855.783161        0.006286  1298505.927025 10000000.000000       -0.000000
20111116  -248895.734876       -0.024890  1373051.991435 10000000.000000       -0.000000
20111117    15020.910983        0.001502  1422381.885510 10000000.000000       -0.000000
20111118  -246972.883019       -0.024697  1253016.188623 10000000.000000       -0.000000
20111121    21994.424996        0.002199  1387749.430378 10000000.000000       -0.000000
20111122     4061.435594        0.000406  1201652.173676 10000000.000000       -0.000000
20111123   -22844.315949       -0.002284  1265374.476507 10000000.000000       -0.000000
20111124    -3823.067305       -0.000382  1203731.742535 10000000.000000       -0.000000
20111125   -53994.320025       -0.005399  1110933.076471 10000000.000000       -0.000000
20111128    16072.708058        0.001607  1279105.683022 10000000.000000       -0.000000
20111129   172484.628250        0.017248  1258068.150523 10000000.000000       -0.000000
20111130  -428948.143072       -0.042895  1184088.528097 10000000.000000       -0.000000
20111201   196173.312684        0.019617  1351392.825079 10000000.000000       -0.000000
20111202  -188733.782142       -0.018873  1396087.512372 10000000.000000       -0.000000
20111205  -272354.378081       -0.027235  1231645.736883 10000000.000000       -0.000000
20111206    33883.423151        0.003388  1108437.347459 10000000.000000       -0.000000
20111207    36580.662677        0.003658   997391.698473 10000000.000000       -0.000000
20111208    19431.116873        0.001943  1409961.364869 10000000.000000       -0.000000
20111209   -88237.603682       -0.008824  1164158.846996 10000000.000000       -0.000000
20111212  -113261.847225       -0.011326  1246152.777928 10000000.000000       -0.000000
20111213  -337525.827835       -0.033753  1075560.423891 10000000.000000       -0.000000
20111214  -165872.223114       -0.016587   982113.029028 10000000.000000       -0.000000
20111215  -220138.421548       -0.022014  1118762.755674 10000000.000000       -0.000000
20111216   272346.763284        0.027235  1102484.088917 10000000.000000       -0.000000
20111219    10046.074553        0.001005  1319234.601859 10000000.000000       -0.000000
20111220   -24475.582932       -0.002448  1294752.486574 10000000.000000       -0.000000
20111221  -229103.769974       -0.022910  1205000.047895 10000000.000000       -0.000000
20111222  -169406.963320       -0.016941  1252795.368196 10000000.000000       -0.000000
20111223    83552.698354        0.008355  1129201.994233 10000000.000000       -0.000000
20111226   -42773.464182       -0.004277  1160946.529129 10000000.000000       -0.000000
20111227  -287740.664245       -0.028774  1326450.094707 10000000.000000       -0.000000
20111228   -72212.832003       -0.007221  1081299.765034 10000000.000000       -0.000000
20111229     1885.772248        0.000189  1120203.874823 10000000.000000       -0.000000
20111230   178647.390330        0.017865  1468829.090045 10000000.000000       -0.000000
20120104  -227702.526795       -0.022770  1552639.008308 10000000.000000       -0.000000
20120105  -422917.194770       -0.042292  1473493.281030 10000000.000000       -0.000000
20120106    47843.850489        0.004784  1117601.715781 10000000.000000       -0.000000
20120109   411447.261611        0.041145   982943.101348 10000000.000000       -0.000000
20120110   403374.779101        0.040337  1546242.806246 10000000.000000       -0.000000
20120111    31062.111663        0.003106  1708910.713992 10000000.000000       -0.000000
20120112   -24371.690077       -0.002437  1223728.169179 10000000.000000       -0.000000
20120113  -408445.409253       -0.040845  1232841.327185 10000000.000000       -0.000000
20120116  -330013.421541       -0.033001  1442319.564312 10000000.000000       -0.000000
20120117   520710.922546        0.052071  1381300.366034 10000000.000000       -0.000000
20120118  -259098.349812       -0.025910  1029476.293361 10000000.000000       -0.000000
20120119   112939.931523        0.011294   976955.300552 10000000.000000       -0.000000
20120120   150337.149724        0.015034  1089504.410579 10000000.000000       -0.000000
20120130   -26045.537115       -0.002605  1155491.440261 10000000.000000       -0.000000
20120131    14459.924674        0.001446  2169460.602664 10000000.000000       -0.000000
20120201   -37764.786988       -0.003776  1092674.745717 10000000.000000       -0.000000
20120202   185573.670463        0.018557  1111488.886798 10000000.000000       -0.000000
20120203   189229.234107        0.018923  1048641.561717 10000000.000000       -0.000000
20120206    85743.750866        0.008574  1153972.975251 10000000.000000       -0.000000
20120207  -166189.181848       -0.016619  1313443.791768 10000000.000000       -0.000000
20120208   262527.563511        0.026253  1363407.995221 10000000.000000       -0.000000
20120209    76155.559468        0.007616  1164581.637163 10000000.000000       -0.000000
20120210    75103.900901        0.007510  1339936.026678 10000000.000000       -0.000000
20120213   115679.666274        0.011568  1364911.753406 10000000.000000       -0.000000
20120214    11461.260159        0.001146  1211157.161872 10000000.000000       -0.000000
20120215   167871.648267        0.016787  1393179.764174 10000000.000000       -0.000000
20120216     6632.304369        0.000663  1430620.006275 10000000.000000       -0.000000
20120217   -35393.654923       -0.003539  1518889.390762 10000000.000000       -0.000000
20120220    42357.389277        0.004236  1370958.667662 10000000.000000       -0.000000
20120221   121276.978388        0.012128  1428019.029724 10000000.000000       -0.000000
20120222   219214.679943        0.021921  1203173.028780 10000000.000000       -0.000000
20120223    55073.893168        0.005507  1314444.438691 10000000.000000       -0.000000
20120224   120418.687684        0.012042  1402721.084484 10000000.000000       -0.000000
20120227      125.226634        0.000013  1411964.497411 10000000.000000       -0.000000
20120228   -77684.831139       -0.007768  1399022.972924 10000000.000000       -0.000000
20120229   -94859.511030       -0.009486  1390218.120375 10000000.000000       -0.000000
20120301    66350.622598        0.006635  1477674.343007 10000000.000000       -0.000000
20120302   176117.636110        0.017612  1282658.393601 10000000.000000       -0.000000
20120305    23295.843856        0.002330  1397127.177485 10000000.000000       -0.000000
20120306   -89231.154987       -0.008923  1338326.983627 10000000.000000       -0.000000
20120307   -30934.565263       -0.003093  1688612.310662 10000000.000000       -0.000000
20120308   153516.009493        0.015352  1459147.803476 10000000.000000       -0.000000
20120309   164547.754178        0.016455  1571499.124964 10000000.000000       -0.000000
20120312    71116.089078        0.007112  1791865.796143 10000000.000000       -0.000000
20120313   104603.328343        0.010460  1637285.407174 10000000.000000       -0.000000
20120314  -438669.758208       -0.043867  1473666.569463 10000000.000000       -0.000000
20120315  -104123.281397       -0.010412  1599940.101924 10000000.000000       -0.000000
20120316   241345.603015        0.024135  1698748.718612 10000000.000000       -0.000000
20120319   169442.134319        0.016944  1568574.410903 10000000.000000       -0.000000
20120320  -208723.426675       -0.020872  1455594.282488 10000000.000000       -0.000000
20120321    43907.773722        0.004391  1877053.465070 10000000.000000       -0.000000
20120322    -3393.711089       -0.000339  1567219.667983 10000000.000000       -0.000000
20120323  -170045.301396       -0.017005  1444207.078493 10000000.000000       -0.000000
20120326     3131.114589        0.000313  1508773.981637 10000000.000000       -0.000000
20120327     5604.091677        0.000560  1646910.498258 10000000.000000       -0.000000
20120328  -444037.697801       -0.044404  1818560.531956 10000000.000000       -0.000000
20120329  -145352.094805       -0.014535  1800720.055565 10000000.000000       -0.000000
20120330   -30437.060358       -0.003044  1846004.081274 10000000.000000       -0.000000
20120405   291457.600647        0.029146  2098526.378356 10000000.000000       -0.000000
20120406    68638.145639        0.006864  1992789.596013 10000000.000000       -0.000000
20120409   -92298.016211       -0.009230  1716553.224321 10000000.000000       -0.000000
20120410   106546.680999        0.010655  1734160.075696 10000000.000000       -0.000000
20120411    48059.809610        0.004806  1888093.965480 10000000.000000       -0.000000
20120412   205207.594107        0.020521  1677617.431469 10000000.000000       -0.000000
20120413    92023.192556        0.009202  1696706.510110 10000000.000000       -0.000000
20120416     5711.660238        0.000571  1897482.411034 10000000.000000       -0.000000
20120417  -114409.194116       -0.011441  2038106.836046 10000000.000000       -0.000000
20120418   204696.436991        0.020470  2331441.652806 10000000.000000       -0.000000
20120419   -12271.356766       -0.001227  2293670.013300 10000000.000000       -0.000000
20120420    77201.230283        0.007720  2322427.709197 10000000.000000       -0.000000
20120423  -188327.051389       -0.018833  3520204.529444 10000000.000000       -0.000000
20120424  -101990.752940       -0.010199  3613692.920574 10000000.000000       -0.000000
20120425   140131.639285        0.014013  3001580.803262 10000000.000000       -0.000000
20120426   -16032.589455       -0.001603  3336161.919258 10000000.000000       -0.000000
20120427   -23507.323562       -0.002351  3925690.520151 10000000.000000       -0.000000
20120502   133218.975009        0.013322  3242639.308612 10000000.000000       -0.000000
20120503    55552.197085        0.005555  2374386.283620 10000000.000000       -0.000000
20120504   120890.360013        0.012089  1317080.021730 10000000.000000       -0.000000
20120507   107318.248344        0.010732  1360489.425260 10000000.000000       -0.000000
20120508    29422.685867        0.002942  1780936.492096 10000000.000000       -0.000000
20120509  -178039.529498       -0.017804  1940362.283201 10000000.000000       -0.000000
20120510    53141.940849        0.005314  1494555.640063 10000000.000000       -0.000000
20120511   -39738.456310       -0.003974  1703787.741692 10000000.000000       -0.000000
20120514     6209.900826        0.000621  1502782.808808 10000000.000000       -0.000000
20120515   -22484.920060       -0.002248  1307376.212472 10000000.000000       -0.000000
20120516   -93113.858131       -0.009311  1551737.416025 10000000.000000       -0.000000
20120517   145811.402567        0.014581  1626758.752710 10000000.000000       -0.000000
20120518  -137045.127162       -0.013705  1899019.009826 10000000.000000       -0.000000
20120521    -2000.644471       -0.000200  1770720.362711 10000000.000000       -0.000000
20120522   140459.925512        0.014046  1338640.101530 10000000.000000       -0.000000
20120523   -34693.742313       -0.003469  1690043.126820 10000000.000000       -0.000000
20120524   -62959.499409       -0.006296  1650085.327134 10000000.000000       -0.000000
20120525  -137697.603006       -0.013770  1298864.843478 10000000.000000       -0.000000
20120528   102463.659116        0.010246  1798592.167365 10000000.000000       -0.000000
20120529   173055.347504        0.017306  1690114.895428 10000000.000000       -0.000000
20120530    45671.596990        0.004567  1626178.232676 10000000.000000       -0.000000
20120531    60369.479354        0.006037  1518080.370642 10000000.000000       -0.000000
20120601    -5506.285182       -0.000551  1344753.416310 10000000.000000       -0.000000
20120604  -349662.331239       -0.034966  2398112.416689 10000000.000000       -0.000000
20120605     1546.025543        0.000155  1421698.318691 10000000.000000       -0.000000
20120606   -11275.145022       -0.001128  1494083.675000 10000000.000000       -0.000000
20120607   -37517.993184       -0.003752  1224950.046800 10000000.000000       -0.000000
20120608   -14955.070116       -0.001496  1142911.872326 10000000.000000       -0.000000
20120611   190895.615713        0.019090  1682679.651301 10000000.000000       -0.000000
20120612   -45306.237347       -0.004531  1526455.624529 10000000.000000       -0.000000
20120613   189909.210905        0.018991  1270647.623537 10000000.000000       -0.000000
20120614   -39860.540493       -0.003986  1389453.233225 10000000.000000       -0.000000
20120615    37430.187215        0.003743  1262781.108131 10000000.000000       -0.000000
20120618   111150.128144        0.011115  1585182.896794 10000000.000000       -0.000000
20120619   -56113.423079       -0.005611  1517558.977570 10000000.000000       -0.000000
20120620    -7115.363424       -0.000712  1277237.477645 10000000.000000       -0.000000
20120621  -134760.933739       -0.013476  1440241.138532 10000000.000000       -0.000000
20120625  -234655.634269       -0.023466  1427142.211575 10000000.000000       -0.000000
20120626    15154.187152        0.001515  1520839.536516 10000000.000000       -0.000000
20120627   -28607.667017       -0.002861  1455509.004859 10000000.000000       -0.000000
20120628  -121180.701925       -0.012118  1380807.137115 10000000.000000       -0.000000
20120629   137401.937169        0.013740  1994128.697247 10000000.000000       -0.000000
20120702   114691.346370        0.011469  1726004.378268 10000000.000000       -0.000000
20120703    68312.906300        0.006831  2121675.361332 10000000.000000       -0.000000
20120704   -11868.091510       -0.001187  1873954.605314 10000000.000000       -0.000000
20120705  -218548.689826       -0.021855  1455898.391827 10000000.000000       -0.000000
20120706   193559.047957        0.019356  1618777.766515 10000000.000000       -0.000000
20120709  -260020.463466       -0.026002  1885970.331956 10000000.000000       -0.000000
20120710   -70357.323190       -0.007036  1341787.894566 10000000.000000       -0.000000
20120711    88907.458929        0.008891   951502.411249 10000000.000000       -0.000000
20120712   142324.855893        0.014232  1073793.286037 10000000.000000       -0.000000
20120713   -87547.536871       -0.008755  1377917.874948 10000000.000000       -0.000000
20120716  -415602.637761       -0.041560  1289026.600673 10000000.000000       -0.000000
20120717    92490.489374        0.009249  1026419.429978 10000000.000000       -0.000000
20120718   104199.086475        0.010420  1030844.365827 10000000.000000       -0.000000
20120719   171318.052839        0.017132  1125786.054250 10000000.000000       -0.000000
20120720   -27159.655217       -0.002716  1385487.810902 10000000.000000       -0.000000
20120723   -71383.686537       -0.007138  1279085.774837 10000000.000000       -0.000000
20120724    90410.527906        0.009041  1158291.231521 10000000.000000       -0.000000
20120725   -64311.182723       -0.006431  1098956.861962 10000000.000000       -0.000000
20120726   -85423.419265       -0.008542  1099836.321907 10000000.000000       -0.000000
20120727   -35339.388404       -0.003534  1057499.144029 10000000.000000       -0.000000
20120730  -216424.138156       -0.021642  1218567.785923 10000000.000000       -0.000000
20120731  -183160.575846       -0.018316  1174027.227556 10000000.000000       -0.000000
20120801   163292.277226        0.016329  1512629.435120 10000000.000000       -0.000000
20120802   -77857.954440       -0.007786  1332580.185338 10000000.000000       -0.000000
20120803   232404.556627        0.023240  1080217.154623 10000000.000000       -0.000000
20120806   250808.505018        0.025081  1214890.178952 10000000.000000       -0.000000
20120807   112973.535294        0.011297  1144709.035399 10000000.000000       -0.000000
20120808   -25951.686605       -0.002595  1274650.658382 10000000.000000       -0.000000
20120809   145663.554274        0.014566  1138038.920001 10000000.000000       -0.000000
20120810     4591.441949        0.000459  1362004.763406 10000000.000000       -0.000000
20120813  -201137.651161       -0.020114  1460163.764328 10000000.000000       -0.000000
20120814   123485.958566        0.012349  1271177.365773 10000000.000000       -0.000000
20120815   -98155.949580       -0.009816  1394840.323530 10000000.000000       -0.000000
20120816   -56641.970538       -0.005664  1354492.457012 10000000.000000       -0.000000
20120817    29190.143170        0.002919  1524004.095033 10000000.000000       -0.000000
20120820    48457.903297        0.004846  1334337.834293 10000000.000000       -0.000000
20120821   166422.648193        0.016642  1515439.023006 10000000.000000       -0.000000
20120822   -60069.197855       -0.006007  1563366.219571 10000000.000000       -0.000000
20120823    84769.027959        0.008477  1376457.979744 10000000.000000       -0.000000
20120824  -188345.689924       -0.018835  1387748.634171 10000000.000000       -0.000000
20120827  -228066.826826       -0.022807  1448103.150269 10000000.000000       -0.000000
20120828    82936.811356        0.008294  1917347.323607 10000000.000000       -0.000000
20120829    -9835.141736       -0.000984  1617226.329737 10000000.000000       -0.000000
20120830  -138867.820395       -0.013887  1525948.975229 10000000.000000       -0.000000
20120831    38108.122237        0.003811  1359709.026371 10000000.000000       -0.000000
20120903   185699.566304        0.018570  1184776.861229 10000000.000000       -0.000000
20120904   -71790.433409       -0.007179  1083111.049506 10000000.000000       -0.000000
20120905    78967.910419        0.007897  1096819.368791 10000000.000000       -0.000000
20120906   110998.139568        0.011100   991206.674499 10000000.000000       -0.000000
20120907   352328.523069        0.035233  1222545.837725 10000000.000000       -0.000000
20120910    94284.846194        0.009428  1414540.548139 10000000.000000       -0.000000
20120911   -18008.848318       -0.001801  1287263.105782 10000000.000000       -0.000000
20120912    59965.348280        0.005997  1192395.465012 10000000.000000       -0.000000
20120913  -148417.918469       -0.014842  1062039.422237 10000000.000000       -0.000000
20120914    10503.460416        0.001050  1152894.639183 10000000.000000       -0.000000
20120917  -283157.854289       -0.028316  1099525.046291 10000000.000000       -0.000000
20120918   -17784.764775       -0.001778   982597.161460 10000000.000000       -0.000000
20120919    95190.933322        0.009519   910110.779249 10000000.000000       -0.000000
20120920  -318295.888182       -0.031830   953104.821001 10000000.000000       -0.000000
20120921   -69902.408304       -0.006990   947817.678908 10000000.000000       -0.000000
20120924    56298.041214        0.005630   831088.079741 10000000.000000       -0.000000
20120925   -86704.187710       -0.008670   874550.479520 10000000.000000       -0.000000
20120926  -257517.376725       -0.025752   842752.114011 10000000.000000       -0.000000
20120927   233180.762737        0.023318   774682.077946 10000000.000000       -0.000000
20120928   188880.675501        0.018888   981775.377721 10000000.000000       -0.000000
20121008    -4261.780989       -0.000426  1186430.851294 10000000.000000       -0.000000
20121009   278941.251157        0.027894  1090839.816092 10000000.000000       -0.000000
20121010   107627.801298        0.010763   933828.457179 10000000.000000       -0.000000
20121011  -169259.081517       -0.016926   934134.630583 10000000.000000       -0.000000
20121012     1133.495073        0.000113  1058042.343562 10000000.000000       -0.000000
20121015   -44184.631854       -0.004418  1196031.023947 10000000.000000       -0.000000
20121016    34810.561132        0.003481  1246980.086314 10000000.000000       -0.000000
20121017    42520.039062        0.004252  1145627.456421 10000000.000000       -0.000000
20121018   177815.145524        0.017782  1170817.410819 10000000.000000       -0.000000
20121019   -21253.243582       -0.002125  1405292.473848 10000000.000000       -0.000000
20121022    61527.612585        0.006153  1191605.142336 10000000.000000       -0.000000
20121023   -91275.931439       -0.009128  1517303.753760 10000000.000000       -0.000000
20121024   -29037.946863       -0.002904  1865791.063090 10000000.000000       -0.000000
20121025   -86062.471306       -0.008606  1726967.848892 10000000.000000       -0.000000
20121026  -195450.247937       -0.019545  2035932.750434 10000000.000000       -0.000000
20121029    -3340.578451       -0.000334  2394046.713821 10000000.000000       -0.000000
20121030    28644.517654        0.002864  2365607.054586 10000000.000000       -0.000000
20121031    38665.310397        0.003867  1803465.334057 10000000.000000       -0.000000
20121101   189633.921475        0.018963  2000324.973503 10000000.000000       -0.000000
20121102    51197.195823        0.005120   950228.786626 10000000.000000       -0.000000
20121105   -24362.630224       -0.002436  1060541.127396 10000000.000000       -0.000000
20121106   -65550.326141       -0.006555   990590.516757 10000000.000000       -0.000000
20121107     1387.847458        0.000139  1033459.007043 10000000.000000       -0.000000
20121108  -259707.454364       -0.025971  1132571.433405 10000000.000000       -0.000000
20121109   -23635.698948       -0.002364  1003312.707934 10000000.000000       -0.000000
20121112    85496.429918        0.008550   861365.707122 10000000.000000       -0.000000
20121113  -185845.310824       -0.018585  1076175.683379 10000000.000000       -0.000000
20121114    26344.316462        0.002634  1038922.505945 10000000.000000       -0.000000
20121115  -186067.245877       -0.018607   965854.226057 10000000.000000       -0.000000
20121116   -49717.353785       -0.004972   875515.818508 10000000.000000       -0.000000
20121119    56812.977441        0.005681   886439.142047 10000000.000000       -0.000000
20121120   -18538.943855       -0.001854   920764.470337 10000000.000000       -0.000000
20121121   112121.001479        0.011212  1103858.013156 10000000.000000       -0.000000
20121122  -119057.260314       -0.011906  1023585.173870 10000000.000000       -0.000000
20121123    34907.715580        0.003491  1112940.038144 10000000.000000       -0.000000
20121126  -116448.911533       -0.011645  1009705.217690 10000000.000000       -0.000000
20121127  -393896.609125       -0.039390   874403.095790 10000000.000000       -0.000000
20121128  -229575.133284       -0.022958   916815.435960 10000000.000000       -0.000000
20121129  -137714.862281       -0.013771   726781.504581 10000000.000000       -0.000000
20121130   133137.178574        0.013314   878540.215667 10000000.000000       -0.000000
20121203  -274134.314815       -0.027413   979496.862181 10000000.000000       -0.000000
20121204   141461.680784        0.014146   935158.187290 10000000.000000       -0.000000
20121205   387559.258954        0.038756  1167713.217305 10000000.000000       -0.000000
20121206   -22934.058569       -0.002293  1421755.423864 10000000.000000       -0.000000
20121207   252201.339538        0.025220  1142128.052890 10000000.000000       -0.000000
20121210   193306.859112        0.019331  1200281.601883 10000000.000000       -0.000000
20121211   -61410.389668       -0.006141  1133155.204140 10000000.000000       -0.000000
20121212    -6145.005029       -0.000615  1189977.403470 10000000.000000       -0.000000
20121213  -138717.612323       -0.013872  1011510.124368 10000000.000000       -0.000000
20121214   410037.418697        0.041004  1042703.770316 10000000.000000       -0.000000
20121217    73894.809783        0.007389  1079700.743124 10000000.000000       -0.000000
20121218   -25486.310419       -0.002549  1146716.510293 10000000.000000       -0.000000
20121219    47635.613505        0.004764  1129155.049513 10000000.000000       -0.000000
20121220    42912.256825        0.004291   887313.142296 10000000.000000       -0.000000
20121221    32646.468097        0.003265   924955.296314 10000000.000000       -0.000000
20121224    94652.790535        0.009465   977609.275754 10000000.000000       -0.000000
20121225   235126.775851        0.023513  1024810.102773 10000000.000000       -0.000000
20121226   170540.987094        0.017054   910556.072533 10000000.000000       -0.000000
20121227   -93987.997137       -0.009399   884658.795417 10000000.000000       -0.000000
20121228   117926.718662        0.011793  1008597.783475 10000000.000000       -0.000000
20121231    86087.175910        0.008609   877076.134208 10000000.000000       -0.000000
20130104   -21976.233290       -0.002198  1016584.924675 10000000.000000       -0.000000
20130107   139102.139224        0.013910  1128101.493499 10000000.000000       -0.000000
20130108   146123.789133        0.014612  1130087.218550 10000000.000000       -0.000000
20130109    28535.071114        0.002854  1090618.762677 10000000.000000       -0.000000
20130110    65179.540117        0.006518  1270665.137297 10000000.000000       -0.000000
20130111  -213526.990863       -0.021353  1190820.709057 10000000.000000       -0.000000
20130114   356802.033404        0.035680  1054396.858410 10000000.000000       -0.000000
20130115   197009.767238        0.019701  1073299.794537 10000000.000000       -0.000000
20130116      -13.656854       -0.000001  1151230.984318 10000000.000000       -0.000000
20130117   -82295.606546       -0.008230  1235666.601939 10000000.000000       -0.000000
20130118   172695.405033        0.017270  1140702.217332 10000000.000000       -0.000000
20130121   103966.777861        0.010397  1131685.538780 10000000.000000       -0.000000
20130122  -172295.089618       -0.017230  1163336.635615 10000000.000000       -0.000000
20130123    26640.721942        0.002664  1017757.194558 10000000.000000       -0.000000
20130124  -247892.392000       -0.024789  1171124.837797 10000000.000000       -0.000000
20130125    24107.718300        0.002411  1024195.387340 10000000.000000       -0.000000
20130128   274081.251398        0.027408  1017932.226775 10000000.000000       -0.000000
20130129   114182.190436        0.011418  1040408.755393 10000000.000000       -0.000000
20130130     -279.603048       -0.000028  1043440.566288 10000000.000000       -0.000000
20130131   -39685.267536       -0.003969  1053042.421282 10000000.000000       -0.000000
20130201    53267.988093        0.005327   983702.336577 10000000.000000       -0.000000
20130204   -82190.812080       -0.008219  1001947.414792 10000000.000000       -0.000000
20130205   102311.437104        0.010231   969368.159629 10000000.000000       -0.000000
20130206    62850.879513        0.006285  1153410.044492 10000000.000000       -0.000000
20130207    54994.924005        0.005499  1176298.695397 10000000.000000       -0.000000
20130208   157135.803545        0.015714  1014634.255718 10000000.000000       -0.000000
20130218    85711.537642        0.008571  1089487.171948 10000000.000000       -0.000000
20130219  -172088.975233       -0.017209  1135989.772767 10000000.000000       -0.000000
20130220   204850.718192        0.020485  1197924.824604 10000000.000000       -0.000000
20130221  -193445.266583       -0.019345  1068052.321122 10000000.000000       -0.000000
20130222   -20572.072759       -0.002057  1199910.705009 10000000.000000       -0.000000
20130225   108409.500004        0.010841  1143884.788979 10000000.000000       -0.000000
20130226  -123943.917933       -0.012394  1080672.549291 10000000.000000       -0.000000
20130227     8407.578824        0.000841  1164395.314352 10000000.000000       -0.000000
20130228   226008.902132        0.022601  1100875.629986 10000000.000000       -0.000000
20130301   134320.561498        0.013432  1416713.236842 10000000.000000       -0.000000
20130304  -344179.686390       -0.034418  1181947.435156 10000000.000000       -0.000000
20130305   220615.108283        0.022062  1160681.802688 10000000.000000       -0.000000
20130306   197170.800878        0.019717  1157340.823087 10000000.000000       -0.000000
20130307   -60196.114923       -0.006020  1096335.983109 10000000.000000       -0.000000
20130308   -82251.846816       -0.008225  1184753.055190 10000000.000000       -0.000000
20130311    12873.451147        0.001287  1083495.702915 10000000.000000       -0.000000
20130312  -269398.594568       -0.026940  1205336.884181 10000000.000000       -0.000000
20130313   -73313.700463       -0.007331  1164965.929348 10000000.000000       -0.000000
20130314    28276.578207        0.002828   920815.898487 10000000.000000       -0.000000
20130315    23351.950357        0.002335  1085727.726699 10000000.000000       -0.000000
20130318  -112387.163930       -0.011239  1217571.824794 10000000.000000       -0.000000
20130319    47092.868622        0.004709  1163869.585542 10000000.000000       -0.000000
20130320   270316.286846        0.027032  1184711.929019 10000000.000000       -0.000000
20130321   104067.861790        0.010407  1205427.630551 10000000.000000       -0.000000
20130322    31196.063928        0.003120  1083118.453834 10000000.000000       -0.000000
20130325     3295.620283        0.000330  1263156.368642 10000000.000000       -0.000000
20130326   -76805.791784       -0.007681  1252449.928084 10000000.000000       -0.000000
20130327    39588.995228        0.003959  1605110.957402 10000000.000000       -0.000000
20130328  -301042.933651       -0.030104  1178467.238019 10000000.000000       -0.000000
20130329    -2747.673526       -0.000275  1495638.888921 10000000.000000       -0.000000
20130401    85531.233433        0.008553  1791302.423761 10000000.000000       -0.000000
20130402  -123937.600567       -0.012394  1638342.406453 10000000.000000       -0.000000
20130403   -93548.360295       -0.009355  1490210.679845 10000000.000000       -0.000000
20130408    50298.721943        0.005030  1285248.310327 10000000.000000       -0.000000
20130409   110063.353067        0.011006  1363591.026186 10000000.000000       -0.000000
20130410   -23191.950361       -0.002319  1230512.385719 10000000.000000       -0.000000
20130411   -29125.351615       -0.002913  1454232.400713 10000000.000000       -0.000000
20130412   -77187.786609       -0.007719  1208798.103662 10000000.000000       -0.000000
20130415  -141244.908675       -0.014124  1164335.444797 10000000.000000       -0.000000
20130416   104894.540135        0.010489  1234873.871724 10000000.000000       -0.000000
20130417   109105.494799        0.010911  1425777.675381 10000000.000000       -0.000000
20130418    55650.288870        0.005565  1144152.157629 10000000.000000       -0.000000
20130419   214522.034834        0.021452  1519254.604669 10000000.000000       -0.000000
20130422    65422.138820        0.006542  1714521.901905 10000000.000000       -0.000000
20130423  -283389.174088       -0.028339  2920633.507999 10000000.000000       -0.000000
20130424   203781.815901        0.020378  3055240.866430 10000000.000000       -0.000000
20130425  -139529.795642       -0.013953  2725738.085733 10000000.000000       -0.000000
20130426  -169208.974570       -0.016921  3518663.272683 10000000.000000       -0.000000
20130502    40708.909063        0.004071  3375506.149715 10000000.000000       -0.000000
20130503   214932.691325        0.021493  3569426.005344 10000000.000000       -0.000000
20130506   208916.370139        0.020892  1118018.049381 10000000.000000       -0.000000
20130507    35971.674156        0.003597  1335451.478701 10000000.000000       -0.000000
20130508    97393.575845        0.009739  1260415.392870 10000000.000000       -0.000000
20130509     3280.015780        0.000328  1169544.319691 10000000.000000       -0.000000
20130510    99738.358447        0.009974  1489884.529056 10000000.000000       -0.000000
20130513    60769.742728        0.006077  1404960.898405 10000000.000000       -0.000000
20130514  -101465.220745       -0.010147  1354100.213624 10000000.000000       -0.000000
20130515   114452.132437        0.011445  1413224.660951 10000000.000000       -0.000000
20130516   107446.775830        0.010745  1134437.559530 10000000.000000       -0.000000
20130517   167520.624667        0.016752  1509140.351251 10000000.000000       -0.000000
20130520   171729.067234        0.017173  1323675.973530 10000000.000000       -0.000000
20130521   137932.052784        0.013793  1399921.786448 10000000.000000       -0.000000
20130522   -73962.839932       -0.007396  1181637.136074 10000000.000000       -0.000000
20130523   -71720.838059       -0.007172  1288931.624359 10000000.000000       -0.000000
20130524   164160.470525        0.016416  1286452.537093 10000000.000000       -0.000000
20130527    91379.650531        0.009138  1309491.039373 10000000.000000       -0.000000
20130528     5907.737160        0.000591  1267468.168952 10000000.000000       -0.000000
20130529    66831.832362        0.006683  1364940.875925 10000000.000000       -0.000000
20130530    37120.474158        0.003712  1402888.430722 10000000.000000       -0.000000
20130531   -35623.835648       -0.003562  1235770.332798 10000000.000000       -0.000000
20130603   -57147.404457       -0.005715  1382483.410117 10000000.000000       -0.000000
20130604  -194424.789153       -0.019442  1192915.481628 10000000.000000       -0.000000
20130605    70536.434021        0.007054  1153219.834522 10000000.000000       -0.000000
20130606  -154092.169902       -0.015409  1144937.394979 10000000.000000       -0.000000
20130607  -123032.562325       -0.012303  1245175.760398 10000000.000000       -0.000000
20130613  -282615.318787       -0.028262  1134171.003824 10000000.000000       -0.000000
20130614   193446.655144        0.019345  1186633.275315 10000000.000000       -0.000000
20130617    35405.499163        0.003541  1128501.398699 10000000.000000       -0.000000
20130618    32714.295586        0.003271  1148530.267234 10000000.000000       -0.000000
20130619   -36654.141981       -0.003665   994172.134901 10000000.000000       -0.000000
20130620  -295785.240270       -0.029579  1035540.802168 10000000.000000       -0.000000
20130621   -71509.233835       -0.007151  1173377.148170 10000000.000000       -0.000000
20130624  -649730.298376       -0.064973  1084706.191710 10000000.000000       -0.000000
20130625   -17094.007503       -0.001709  1081196.944469 10000000.000000       -0.000000
20130626   195970.520980        0.019597  1090139.207935 10000000.000000       -0.000000
20130627  -176125.194756       -0.017613  1019024.089537 10000000.000000       -0.000000
20130628     6721.579386        0.000672  1130380.289841 10000000.000000       -0.000000
20130701   224238.148924        0.022424  1262931.430198 10000000.000000       -0.000000
20130702   191393.669609        0.019139  1392741.107535 10000000.000000       -0.000000
20130703   -19953.742137       -0.001995  1296929.239268 10000000.000000       -0.000000
20130704   109758.932946        0.010976  1329070.714292 10000000.000000       -0.000000
20130705   -28317.839702       -0.002832  1414242.287915 10000000.000000       -0.000000
20130708  -417144.783417       -0.041714  1163911.476368 10000000.000000       -0.000000
20130709    70685.410824        0.007069  1124640.179639 10000000.000000       -0.000000
20130710   325628.320758        0.032563   968505.625918 10000000.000000       -0.000000
20130711   319683.571718        0.031968  1206654.684538 10000000.000000       -0.000000
20130712   -65670.420961       -0.006567  1224928.016003 10000000.000000       -0.000000
20130715   218998.792217        0.021900  1043872.764468 10000000.000000       -0.000000
20130716   140846.896891        0.014085  1096188.292696 10000000.000000       -0.000000
20130717  -125603.587937       -0.012560  1124755.518555 10000000.000000       -0.000000
20130718   -21249.046800       -0.002125  1243136.932329 10000000.000000       -0.000000
20130719  -222594.642053       -0.022259  1238507.312089 10000000.000000       -0.000000
20130722   181249.194735        0.018125  1169932.224327 10000000.000000       -0.000000
20130723   272796.832586        0.027280  1086165.299602 10000000.000000       -0.000000
20130724    53170.683765        0.005317  1196513.637581 10000000.000000       -0.000000
20130725  -156771.446050       -0.015677  1002690.525968 10000000.000000       -0.000000
20130726    -4781.309057       -0.000478  1170064.908315 10000000.000000       -0.000000
20130729  -157027.476548       -0.015703  1255349.974955 10000000.000000       -0.000000
20130730    17919.007101        0.001792  1331610.560635 10000000.000000       -0.000000
20130731    47921.420318        0.004792  1191715.125657 10000000.000000       -0.000000
20130801   292632.119892        0.029263  1332573.626998 10000000.000000       -0.000000
20130802    75428.505723        0.007543  1172755.539417 10000000.000000       -0.000000
20130805   184349.566522        0.018435  1303542.027000 10000000.000000       -0.000000
20130806    99942.545119        0.009994  1217600.838345 10000000.000000       -0.000000
20130807   -87149.770768       -0.008715  1177657.582402 10000000.000000       -0.000000
20130808    25341.117121        0.002534  1284678.733188 10000000.000000       -0.000000
20130809    65581.563522        0.006558  1440095.892038 10000000.000000       -0.000000
20130812   181991.592540        0.018199  1401138.774990 10000000.000000       -0.000000
20130813    76183.613808        0.007618  1672248.784591 10000000.000000       -0.000000
20130814   -19046.543619       -0.001905  1417186.076135 10000000.000000       -0.000000
20130815   -96299.457315       -0.009630  1330902.109512 10000000.000000       -0.000000
20130816  -202678.991107       -0.020268  1529796.048779 10000000.000000       -0.000000
20130819   195189.216019        0.019519  1590900.434317 10000000.000000       -0.000000
20130820    26030.089378        0.002603  1606046.053025 10000000.000000       -0.000000
